<?xml version="1.0"?>
<opencv_storage>
<entrenaFinal400pos1600neg type_id="opencv-haar-classifier">
  <size>
    20 20</size>
  <stages>
    <_>
      <!-- stage 0 -->
      <trees>
        <_>
          <!-- tree 0 -->
          <_>
            <!-- root node -->
            <feature>
              <rects>
                <_>
                  3 2 10 18 -1.</_>
                <_>
                  3 11 10 9 2.</_></rects>
              <tilted>0</tilted></feature>
            <threshold>-1.1934009939432144e-01</threshold>
            <left_val>5.4671698808670044e-01</left_val>
            <right_val>-7.6081138849258423e-01</right_val></_></_>
        <_>
          <!-- tree 1 -->
          <_>
            <!-- root node -->
            <feature>
              <rects>
                <_>
                  9 2 7 8 -1.</_>
                <_>
                  9 6 7 4 2.</_></rects>
              <tilted>0</tilted></feature>
            <threshold>-2.0835890900343657e-03</threshold>
            <left_val>1.7186759412288666e-01</left_val>
            <right_val>-3.2170429825782776e-01</right_val></_></_>
        <_>
          <!-- tree 2 -->
          <_>
            <!-- root node -->
            <feature>
              <rects>
                <_>
                  1 2 15 4 -1.</_>
                <_>
                  6 2 5 4 3.</_></rects>
              <tilted>0</tilted></feature>
            <threshold>5.7164829224348068e-02</threshold>
            <left_val>-4.3990421295166016e-01</left_val>
            <right_val>7.2484570741653442e-01</right_val></_></_>
        <_>
          <!-- tree 3 -->
          <_>
            <!-- root node -->
            <feature>
              <rects>
                <_>
                  16 11 4 8 -1.</_>
                <_>
                  16 11 2 8 2.</_></rects>
              <tilted>0</tilted></feature>
            <threshold>-3.6094039678573608e-03</threshold>
            <left_val>4.1002398729324341e-01</left_val>
            <right_val>-5.7728642225265503e-01</right_val></_></_>
        <_>
          <!-- tree 4 -->
          <_>
            <!-- root node -->
            <feature>
              <rects>
                <_>
                  0 17 2 3 -1.</_>
                <_>
                  1 17 1 3 2.</_></rects>
              <tilted>0</tilted></feature>
            <threshold>-4.6038188884267583e-05</threshold>
            <left_val>3.5229980945587158e-01</left_val>
            <right_val>-6.6309577226638794e-01</right_val></_></_>
        <_>
          <!-- tree 5 -->
          <_>
            <!-- root node -->
            <feature>
              <rects>
                <_>
                  5 10 14 10 -1.</_>
                <_>
                  12 10 7 5 2.</_>
                <_>
                  5 15 7 5 2.</_></rects>
              <tilted>0</tilted></feature>
            <threshold>-6.6498339176177979e-02</threshold>
            <left_val>3.1051400303840637e-01</left_val>
            <right_val>-1.3521300256252289e-01</right_val></_></_>
        <_>
          <!-- tree 6 -->
          <_>
            <!-- root node -->
            <feature>
              <rects>
                <_>
                  2 8 14 12 -1.</_>
                <_>
                  2 8 7 6 2.</_>
                <_>
                  9 14 7 6 2.</_></rects>
              <tilted>0</tilted></feature>
            <threshold>-8.4893576800823212e-02</threshold>
            <left_val>7.0120942592620850e-01</left_val>
            <right_val>-3.3687880635261536e-01</right_val></_></_></trees>
      <stage_threshold>-1.2094949483871460e+00</stage_threshold>
      <parent>-1</parent>
      <next>-1</next></_>
    <_>
      <!-- stage 1 -->
      <trees>
        <_>
          <!-- tree 0 -->
          <_>
            <!-- root node -->
            <feature>
              <rects>
                <_>
                  4 2 7 8 -1.</_>
                <_>
                  4 6 7 4 2.</_></rects>
              <tilted>0</tilted></feature>
            <threshold>-3.0220959335565567e-02</threshold>
            <left_val>4.5570209622383118e-01</left_val>
            <right_val>-6.4401727914810181e-01</right_val></_></_>
        <_>
          <!-- tree 1 -->
          <_>
            <!-- root node -->
            <feature>
              <rects>
                <_>
                  10 4 4 16 -1.</_>
                <_>
                  10 12 4 8 2.</_></rects>
              <tilted>0</tilted></feature>
            <threshold>-1.0268630087375641e-01</threshold>
            <left_val>4.8164001107215881e-01</left_val>
            <right_val>-2.6029780507087708e-01</right_val></_></_>
        <_>
          <!-- tree 2 -->
          <_>
            <!-- root node -->
            <feature>
              <rects>
                <_>
                  0 17 6 2 -1.</_>
                <_>
                  3 17 3 2 2.</_></rects>
              <tilted>0</tilted></feature>
            <threshold>-2.5259340181946754e-03</threshold>
            <left_val>4.1099089384078979e-01</left_val>
            <right_val>-6.0336041450500488e-01</right_val></_></_>
        <_>
          <!-- tree 3 -->
          <_>
            <!-- root node -->
            <feature>
              <rects>
                <_>
                  19 0 1 20 -1.</_>
                <_>
                  19 10 1 10 2.</_></rects>
              <tilted>0</tilted></feature>
            <threshold>-1.5226390212774277e-02</threshold>
            <left_val>-7.7327257394790649e-01</left_val>
            <right_val>1.8569180369377136e-01</right_val></_></_>
        <_>
          <!-- tree 4 -->
          <_>
            <!-- root node -->
            <feature>
              <rects>
                <_>
                  0 2 1 18 -1.</_>
                <_>
                  0 11 1 9 2.</_></rects>
              <tilted>0</tilted></feature>
            <threshold>3.1063649803400040e-03</threshold>
            <left_val>2.4136610329151154e-01</left_val>
            <right_val>-8.3516687154769897e-01</right_val></_></_>
        <_>
          <!-- tree 5 -->
          <_>
            <!-- root node -->
            <feature>
              <rects>
                <_>
                  8 4 7 2 -1.</_>
                <_>
                  8 5 7 1 2.</_></rects>
              <tilted>0</tilted></feature>
            <threshold>-8.6708907037973404e-03</threshold>
            <left_val>4.1618248820304871e-01</left_val>
            <right_val>-1.9687430560588837e-01</right_val></_></_>
        <_>
          <!-- tree 6 -->
          <_>
            <!-- root node -->
            <feature>
              <rects>
                <_>
                  0 10 16 10 -1.</_>
                <_>
                  0 10 8 5 2.</_>
                <_>
                  8 15 8 5 2.</_></rects>
              <tilted>0</tilted></feature>
            <threshold>-1.2665370106697083e-01</threshold>
            <left_val>6.5535688400268555e-01</left_val>
            <right_val>-2.3054780066013336e-01</right_val></_></_>
        <_>
          <!-- tree 7 -->
          <_>
            <!-- root node -->
            <feature>
              <rects>
                <_>
                  9 2 5 18 -1.</_>
                <_>
                  9 11 5 9 2.</_></rects>
              <tilted>0</tilted></feature>
            <threshold>7.9491890966892242e-02</threshold>
            <left_val>7.4855200946331024e-02</left_val>
            <right_val>-9.5740270614624023e-01</right_val></_></_>
        <_>
          <!-- tree 8 -->
          <_>
            <!-- root node -->
            <feature>
              <rects>
                <_>
                  6 2 5 18 -1.</_>
                <_>
                  6 11 5 9 2.</_></rects>
              <tilted>0</tilted></feature>
            <threshold>-1.2073159962892532e-01</threshold>
            <left_val>3.3757460117340088e-01</left_val>
            <right_val>-4.5923000574111938e-01</right_val></_></_></trees>
      <stage_threshold>-1.1577919721603394e+00</stage_threshold>
      <parent>0</parent>
      <next>-1</next></_>
    <_>
      <!-- stage 2 -->
      <trees>
        <_>
          <!-- tree 0 -->
          <_>
            <!-- root node -->
            <feature>
              <rects>
                <_>
                  5 1 6 6 -1.</_>
                <_>
                  5 3 6 2 3.</_></rects>
              <tilted>0</tilted></feature>
            <threshold>3.1829088926315308e-02</threshold>
            <left_val>-3.8017478585243225e-01</left_val>
            <right_val>7.0410770177841187e-01</right_val></_></_>
        <_>
          <!-- tree 1 -->
          <_>
            <!-- root node -->
            <feature>
              <rects>
                <_>
                  14 18 3 2 -1.</_>
                <_>
                  14 19 3 1 2.</_></rects>
              <tilted>0</tilted></feature>
            <threshold>1.3745049363933504e-04</threshold>
            <left_val>-4.2020210623741150e-01</left_val>
            <right_val>3.9898741245269775e-01</right_val></_></_>
        <_>
          <!-- tree 2 -->
          <_>
            <!-- root node -->
            <feature>
              <rects>
                <_>
                  3 18 3 2 -1.</_>
                <_>
                  3 19 3 1 2.</_></rects>
              <tilted>0</tilted></feature>
            <threshold>6.0205700719961897e-05</threshold>
            <left_val>-5.7702779769897461e-01</left_val>
            <right_val>3.3926141262054443e-01</right_val></_></_>
        <_>
          <!-- tree 3 -->
          <_>
            <!-- root node -->
            <feature>
              <rects>
                <_>
                  18 19 2 1 -1.</_>
                <_>
                  18 19 1 1 2.</_></rects>
              <tilted>0</tilted></feature>
            <threshold>-4.7696979891043156e-05</threshold>
            <left_val>3.2278779149055481e-01</left_val>
            <right_val>-4.2369130253791809e-01</right_val></_></_>
        <_>
          <!-- tree 4 -->
          <_>
            <!-- root node -->
            <feature>
              <rects>
                <_>
                  0 19 4 1 -1.</_>
                <_>
                  2 19 2 1 2.</_></rects>
              <tilted>0</tilted></feature>
            <threshold>-2.4707060219952837e-05</threshold>
            <left_val>2.6276320219039917e-01</left_val>
            <right_val>-6.5834832191467285e-01</right_val></_></_>
        <_>
          <!-- tree 5 -->
          <_>
            <!-- root node -->
            <feature>
              <rects>
                <_>
                  19 12 1 8 -1.</_>
                <_>
                  19 16 1 4 2.</_></rects>
              <tilted>0</tilted></feature>
            <threshold>-4.6981121413409710e-03</threshold>
            <left_val>-6.3020062446594238e-01</left_val>
            <right_val>9.9962361156940460e-02</right_val></_></_>
        <_>
          <!-- tree 6 -->
          <_>
            <!-- root node -->
            <feature>
              <rects>
                <_>
                  0 0 20 7 -1.</_>
                <_>
                  10 0 10 7 2.</_></rects>
              <tilted>0</tilted></feature>
            <threshold>-1.9132860004901886e-01</threshold>
            <left_val>-9.3152469396591187e-01</left_val>
            <right_val>1.4315080642700195e-01</right_val></_></_></trees>
      <stage_threshold>-1.1090929508209229e+00</stage_threshold>
      <parent>1</parent>
      <next>-1</next></_>
    <_>
      <!-- stage 3 -->
      <trees>
        <_>
          <!-- tree 0 -->
          <_>
            <!-- root node -->
            <feature>
              <rects>
                <_>
                  1 1 18 13 -1.</_>
                <_>
                  7 1 6 13 3.</_></rects>
              <tilted>0</tilted></feature>
            <threshold>2.2459770739078522e-01</threshold>
            <left_val>-2.7629289031028748e-01</left_val>
            <right_val>6.4853751659393311e-01</right_val></_></_>
        <_>
          <!-- tree 1 -->
          <_>
            <!-- root node -->
            <feature>
              <rects>
                <_>
                  1 0 18 1 -1.</_>
                <_>
                  1 0 9 1 2.</_></rects>
              <tilted>0</tilted></feature>
            <threshold>-4.0322798304259777e-03</threshold>
            <left_val>-7.1690958738327026e-01</left_val>
            <right_val>2.4637359380722046e-01</right_val></_></_>
        <_>
          <!-- tree 2 -->
          <_>
            <!-- root node -->
            <feature>
              <rects>
                <_>
                  5 3 6 4 -1.</_>
                <_>
                  5 5 6 2 2.</_></rects>
              <tilted>0</tilted></feature>
            <threshold>-3.0971610918641090e-02</threshold>
            <left_val>4.9541181325912476e-01</left_val>
            <right_val>-2.9608649015426636e-01</right_val></_></_>
        <_>
          <!-- tree 3 -->
          <_>
            <!-- root node -->
            <feature>
              <rects>
                <_>
                  19 18 1 2 -1.</_>
                <_>
                  19 19 1 1 2.</_></rects>
              <tilted>0</tilted></feature>
            <threshold>-4.0904560592025518e-04</threshold>
            <left_val>-7.9768460988998413e-01</left_val>
            <right_val>2.0013329386711121e-01</right_val></_></_>
        <_>
          <!-- tree 4 -->
          <_>
            <!-- root node -->
            <feature>
              <rects>
                <_>
                  0 16 1 4 -1.</_>
                <_>
                  0 18 1 2 2.</_></rects>
              <tilted>0</tilted></feature>
            <threshold>-1.0909599950537086e-03</threshold>
            <left_val>-7.5479567050933838e-01</left_val>
            <right_val>1.5772250294685364e-01</right_val></_></_>
        <_>
          <!-- tree 5 -->
          <_>
            <!-- root node -->
            <feature>
              <rects>
                <_>
                  19 17 1 2 -1.</_>
                <_>
                  19 18 1 1 2.</_></rects>
              <tilted>0</tilted></feature>
            <threshold>6.2261492712423205e-04</threshold>
            <left_val>1.3539710640907288e-01</left_val>
            <right_val>-7.0745128393173218e-01</right_val></_></_>
        <_>
          <!-- tree 6 -->
          <_>
            <!-- root node -->
            <feature>
              <rects>
                <_>
                  1 15 2 3 -1.</_>
                <_>
                  2 15 1 3 2.</_></rects>
              <tilted>0</tilted></feature>
            <threshold>-3.0263679218478501e-04</threshold>
            <left_val>2.7187681198120117e-01</left_val>
            <right_val>-5.3424948453903198e-01</right_val></_></_>
        <_>
          <!-- tree 7 -->
          <_>
            <!-- root node -->
            <feature>
              <rects>
                <_>
                  19 17 1 2 -1.</_>
                <_>
                  19 18 1 1 2.</_></rects>
              <tilted>0</tilted></feature>
            <threshold>-2.8925860533490777e-04</threshold>
            <left_val>-6.8845808506011963e-01</left_val>
            <right_val>2.1203610301017761e-01</right_val></_></_>
        <_>
          <!-- tree 8 -->
          <_>
            <!-- root node -->
            <feature>
              <rects>
                <_>
                  0 0 1 14 -1.</_>
                <_>
                  0 7 1 7 2.</_></rects>
              <tilted>0</tilted></feature>
            <threshold>-1.1140470393002033e-02</threshold>
            <left_val>-5.6290227174758911e-01</left_val>
            <right_val>2.2987769544124603e-01</right_val></_></_></trees>
      <stage_threshold>-1.0172749757766724e+00</stage_threshold>
      <parent>2</parent>
      <next>-1</next></_>
    <_>
      <!-- stage 4 -->
      <trees>
        <_>
          <!-- tree 0 -->
          <_>
            <!-- root node -->
            <feature>
              <rects>
                <_>
                  0 10 14 10 -1.</_>
                <_>
                  0 10 7 5 2.</_>
                <_>
                  7 15 7 5 2.</_></rects>
              <tilted>0</tilted></feature>
            <threshold>-1.3441020250320435e-01</threshold>
            <left_val>7.1075057983398438e-01</left_val>
            <right_val>-2.4047949910163879e-01</right_val></_></_>
        <_>
          <!-- tree 1 -->
          <_>
            <!-- root node -->
            <feature>
              <rects>
                <_>
                  19 5 1 15 -1.</_>
                <_>
                  19 10 1 5 3.</_></rects>
              <tilted>0</tilted></feature>
            <threshold>-8.7596327066421509e-03</threshold>
            <left_val>-7.0338940620422363e-01</left_val>
            <right_val>1.9596810638904572e-01</right_val></_></_>
        <_>
          <!-- tree 2 -->
          <_>
            <!-- root node -->
            <feature>
              <rects>
                <_>
                  0 12 1 8 -1.</_>
                <_>
                  0 16 1 4 2.</_></rects>
              <tilted>0</tilted></feature>
            <threshold>2.8202719986438751e-03</threshold>
            <left_val>1.8739500641822815e-01</left_val>
            <right_val>-6.8379712104797363e-01</right_val></_></_>
        <_>
          <!-- tree 3 -->
          <_>
            <!-- root node -->
            <feature>
              <rects>
                <_>
                  18 15 2 1 -1.</_>
                <_>
                  18 15 1 1 2.</_></rects>
              <tilted>0</tilted></feature>
            <threshold>-2.5303930669906549e-05</threshold>
            <left_val>2.4687139689922333e-01</left_val>
            <right_val>-4.3051490187644958e-01</right_val></_></_>
        <_>
          <!-- tree 4 -->
          <_>
            <!-- root node -->
            <feature>
              <rects>
                <_>
                  0 15 2 1 -1.</_>
                <_>
                  1 15 1 1 2.</_></rects>
              <tilted>0</tilted></feature>
            <threshold>-2.3349990442511626e-05</threshold>
            <left_val>2.7092739939689636e-01</left_val>
            <right_val>-4.7348630428314209e-01</right_val></_></_>
        <_>
          <!-- tree 5 -->
          <_>
            <!-- root node -->
            <feature>
              <rects>
                <_>
                  10 2 8 4 -1.</_>
                <_>
                  10 2 4 4 2.</_></rects>
              <tilted>0</tilted></feature>
            <threshold>6.3162982463836670e-02</threshold>
            <left_val>3.6473751068115234e-02</left_val>
            <right_val>-7.5447827577590942e-01</right_val></_></_>
        <_>
          <!-- tree 6 -->
          <_>
            <!-- root node -->
            <feature>
              <rects>
                <_>
                  2 2 8 4 -1.</_>
                <_>
                  6 2 4 4 2.</_></rects>
              <tilted>0</tilted></feature>
            <threshold>1.1631039902567863e-02</threshold>
            <left_val>-4.1588830947875977e-01</left_val>
            <right_val>3.4254008531570435e-01</right_val></_></_>
        <_>
          <!-- tree 7 -->
          <_>
            <!-- root node -->
            <feature>
              <rects>
                <_>
                  1 12 18 7 -1.</_>
                <_>
                  7 12 6 7 3.</_></rects>
              <tilted>0</tilted></feature>
            <threshold>-4.7707669436931610e-02</threshold>
            <left_val>3.4216749668121338e-01</left_val>
            <right_val>-3.7958830595016479e-01</right_val></_></_>
        <_>
          <!-- tree 8 -->
          <_>
            <!-- root node -->
            <feature>
              <rects>
                <_>
                  5 1 10 7 -1.</_>
                <_>
                  10 1 5 7 2.</_></rects>
              <tilted>0</tilted></feature>
            <threshold>-1.3369569554924965e-02</threshold>
            <left_val>3.3201891183853149e-01</left_val>
            <right_val>-3.9205250144004822e-01</right_val></_></_>
        <_>
          <!-- tree 9 -->
          <_>
            <!-- root node -->
            <feature>
              <rects>
                <_>
                  19 15 1 2 -1.</_>
                <_>
                  19 16 1 1 2.</_></rects>
              <tilted>0</tilted></feature>
            <threshold>-4.7549078590236604e-04</threshold>
            <left_val>-7.4831497669219971e-01</left_val>
            <right_val>1.9569779932498932e-01</right_val></_></_></trees>
      <stage_threshold>-1.0390889644622803e+00</stage_threshold>
      <parent>3</parent>
      <next>-1</next></_>
    <_>
      <!-- stage 5 -->
      <trees>
        <_>
          <!-- tree 0 -->
          <_>
            <!-- root node -->
            <feature>
              <rects>
                <_>
                  4 1 7 6 -1.</_>
                <_>
                  4 3 7 2 3.</_></rects>
              <tilted>0</tilted></feature>
            <threshold>3.0481580644845963e-02</threshold>
            <left_val>-3.7506571412086487e-01</left_val>
            <right_val>5.7222092151641846e-01</right_val></_></_>
        <_>
          <!-- tree 1 -->
          <_>
            <!-- root node -->
            <feature>
              <rects>
                <_>
                  7 11 7 6 -1.</_>
                <_>
                  7 14 7 3 2.</_></rects>
              <tilted>0</tilted></feature>
            <threshold>-4.0702551603317261e-02</threshold>
            <left_val>4.5271220803260803e-01</left_val>
            <right_val>-2.5989308953285217e-01</right_val></_></_>
        <_>
          <!-- tree 2 -->
          <_>
            <!-- root node -->
            <feature>
              <rects>
                <_>
                  0 1 1 18 -1.</_>
                <_>
                  0 10 1 9 2.</_></rects>
              <tilted>0</tilted></feature>
            <threshold>2.7556549757719040e-03</threshold>
            <left_val>1.6580559313297272e-01</left_val>
            <right_val>-8.1889641284942627e-01</right_val></_></_>
        <_>
          <!-- tree 3 -->
          <_>
            <!-- root node -->
            <feature>
              <rects>
                <_>
                  14 15 6 4 -1.</_>
                <_>
                  14 15 3 4 2.</_></rects>
              <tilted>0</tilted></feature>
            <threshold>-5.2549368701875210e-03</threshold>
            <left_val>2.6282510161399841e-01</left_val>
            <right_val>-4.4926199316978455e-01</right_val></_></_>
        <_>
          <!-- tree 4 -->
          <_>
            <!-- root node -->
            <feature>
              <rects>
                <_>
                  3 2 4 6 -1.</_>
                <_>
                  5 2 2 6 2.</_></rects>
              <tilted>0</tilted></feature>
            <threshold>8.7614022195339203e-03</threshold>
            <left_val>-3.2180848717689514e-01</left_val>
            <right_val>4.0157321095466614e-01</right_val></_></_>
        <_>
          <!-- tree 5 -->
          <_>
            <!-- root node -->
            <feature>
              <rects>
                <_>
                  16 11 4 7 -1.</_>
                <_>
                  16 11 2 7 2.</_></rects>
              <tilted>0</tilted></feature>
            <threshold>-8.0200014635920525e-03</threshold>
            <left_val>1.7683009803295135e-01</left_val>
            <right_val>-2.3839209973812103e-01</right_val></_></_>
        <_>
          <!-- tree 6 -->
          <_>
            <!-- root node -->
            <feature>
              <rects>
                <_>
                  0 11 4 7 -1.</_>
                <_>
                  2 11 2 7 2.</_></rects>
              <tilted>0</tilted></feature>
            <threshold>-1.0951469652354717e-02</threshold>
            <left_val>3.4415879845619202e-01</left_val>
            <right_val>-3.2885810732841492e-01</right_val></_></_>
        <_>
          <!-- tree 7 -->
          <_>
            <!-- root node -->
            <feature>
              <rects>
                <_>
                  19 8 1 12 -1.</_>
                <_>
                  19 12 1 4 3.</_></rects>
              <tilted>0</tilted></feature>
            <threshold>3.0313578899949789e-03</threshold>
            <left_val>1.5551869571208954e-01</left_val>
            <right_val>-6.1748170852661133e-01</right_val></_></_>
        <_>
          <!-- tree 8 -->
          <_>
            <!-- root node -->
            <feature>
              <rects>
                <_>
                  0 8 1 12 -1.</_>
                <_>
                  0 12 1 4 3.</_></rects>
              <tilted>0</tilted></feature>
            <threshold>5.0647109746932983e-03</threshold>
            <left_val>1.2969060242176056e-01</left_val>
            <right_val>-7.6631861925125122e-01</right_val></_></_>
        <_>
          <!-- tree 9 -->
          <_>
            <!-- root node -->
            <feature>
              <rects>
                <_>
                  7 2 10 6 -1.</_>
                <_>
                  7 5 10 3 2.</_></rects>
              <tilted>0</tilted></feature>
            <threshold>-3.0666690319776535e-02</threshold>
            <left_val>2.4499540030956268e-01</left_val>
            <right_val>-2.7068439126014709e-01</right_val></_></_>
        <_>
          <!-- tree 10 -->
          <_>
            <!-- root node -->
            <feature>
              <rects>
                <_>
                  0 13 20 6 -1.</_>
                <_>
                  0 16 20 3 2.</_></rects>
              <tilted>0</tilted></feature>
            <threshold>-4.7884039580821991e-02</threshold>
            <left_val>3.9783948659896851e-01</left_val>
            <right_val>-2.6044869422912598e-01</right_val></_></_></trees>
      <stage_threshold>-8.6470091342926025e-01</stage_threshold>
      <parent>4</parent>
      <next>-1</next></_>
    <_>
      <!-- stage 6 -->
      <trees>
        <_>
          <!-- tree 0 -->
          <_>
            <!-- root node -->
            <feature>
              <rects>
                <_>
                  0 16 8 2 -1.</_>
                <_>
                  4 16 4 2 2.</_></rects>
              <tilted>0</tilted></feature>
            <threshold>-4.1659381240606308e-03</threshold>
            <left_val>2.7590590715408325e-01</left_val>
            <right_val>-5.3631818294525146e-01</right_val></_></_>
        <_>
          <!-- tree 1 -->
          <_>
            <!-- root node -->
            <feature>
              <rects>
                <_>
                  4 0 14 12 -1.</_>
                <_>
                  11 0 7 6 2.</_>
                <_>
                  4 6 7 6 2.</_></rects>
              <tilted>0</tilted></feature>
            <threshold>-8.5098057985305786e-02</threshold>
            <left_val>3.2194331288337708e-01</left_val>
            <right_val>-2.1018810570240021e-01</right_val></_></_>
        <_>
          <!-- tree 2 -->
          <_>
            <!-- root node -->
            <feature>
              <rects>
                <_>
                  2 0 3 2 -1.</_>
                <_>
                  2 1 3 1 2.</_></rects>
              <tilted>0</tilted></feature>
            <threshold>-9.9884741939604282e-04</threshold>
            <left_val>-6.4414817094802856e-01</left_val>
            <right_val>1.6531260311603546e-01</right_val></_></_>
        <_>
          <!-- tree 3 -->
          <_>
            <!-- root node -->
            <feature>
              <rects>
                <_>
                  10 0 10 6 -1.</_>
                <_>
                  10 0 5 6 2.</_></rects>
              <tilted>0</tilted></feature>
            <threshold>7.8732743859291077e-03</threshold>
            <left_val>-2.0114359259605408e-01</left_val>
            <right_val>1.6263680160045624e-01</right_val></_></_>
        <_>
          <!-- tree 4 -->
          <_>
            <!-- root node -->
            <feature>
              <rects>
                <_>
                  0 17 2 2 -1.</_>
                <_>
                  1 17 1 2 2.</_></rects>
              <tilted>0</tilted></feature>
            <threshold>-4.4972101022722200e-05</threshold>
            <left_val>1.6101020574569702e-01</left_val>
            <right_val>-5.4357999563217163e-01</right_val></_></_>
        <_>
          <!-- tree 5 -->
          <_>
            <!-- root node -->
            <feature>
              <rects>
                <_>
                  2 0 18 1 -1.</_>
                <_>
                  2 0 9 1 2.</_></rects>
              <tilted>0</tilted></feature>
            <threshold>2.4239929392933846e-02</threshold>
            <left_val>1.1431279778480530e-01</left_val>
            <right_val>-7.4833470582962036e-01</right_val></_></_>
        <_>
          <!-- tree 6 -->
          <_>
            <!-- root node -->
            <feature>
              <rects>
                <_>
                  0 0 4 1 -1.</_>
                <_>
                  2 0 2 1 2.</_></rects>
              <tilted>0</tilted></feature>
            <threshold>-8.2233658758923411e-04</threshold>
            <left_val>-5.2452307939529419e-01</left_val>
            <right_val>1.6417719423770905e-01</right_val></_></_>
        <_>
          <!-- tree 7 -->
          <_>
            <!-- root node -->
            <feature>
              <rects>
                <_>
                  5 9 12 10 -1.</_>
                <_>
                  11 9 6 5 2.</_>
                <_>
                  5 14 6 5 2.</_></rects>
              <tilted>0</tilted></feature>
            <threshold>-9.0803042054176331e-02</threshold>
            <left_val>4.5229861140251160e-01</left_val>
            <right_val>-1.1806949973106384e-01</right_val></_></_>
        <_>
          <!-- tree 8 -->
          <_>
            <!-- root node -->
            <feature>
              <rects>
                <_>
                  2 9 14 10 -1.</_>
                <_>
                  2 9 7 5 2.</_>
                <_>
                  9 14 7 5 2.</_></rects>
              <tilted>0</tilted></feature>
            <threshold>-9.1630347073078156e-02</threshold>
            <left_val>5.9961831569671631e-01</left_val>
            <right_val>-2.1578480303287506e-01</right_val></_></_>
        <_>
          <!-- tree 9 -->
          <_>
            <!-- root node -->
            <feature>
              <rects>
                <_>
                  9 2 4 3 -1.</_>
                <_>
                  9 3 4 1 3.</_></rects>
              <tilted>0</tilted></feature>
            <threshold>1.5296789817512035e-02</threshold>
            <left_val>-5.4449949413537979e-02</left_val>
            <right_val>6.1875039339065552e-01</right_val></_></_>
        <_>
          <!-- tree 10 -->
          <_>
            <!-- root node -->
            <feature>
              <rects>
                <_>
                  0 0 1 10 -1.</_>
                <_>
                  0 5 1 5 2.</_></rects>
              <tilted>0</tilted></feature>
            <threshold>3.9489357732236385e-03</threshold>
            <left_val>1.2925939261913300e-01</left_val>
            <right_val>-6.5453737974166870e-01</right_val></_></_>
        <_>
          <!-- tree 11 -->
          <_>
            <!-- root node -->
            <feature>
              <rects>
                <_>
                  10 0 10 6 -1.</_>
                <_>
                  10 0 5 6 2.</_></rects>
              <tilted>0</tilted></feature>
            <threshold>5.0248499959707260e-02</threshold>
            <left_val>6.3253208994865417e-02</left_val>
            <right_val>-3.1801050901412964e-01</right_val></_></_>
        <_>
          <!-- tree 12 -->
          <_>
            <!-- root node -->
            <feature>
              <rects>
                <_>
                  0 1 18 4 -1.</_>
                <_>
                  6 1 6 4 3.</_></rects>
              <tilted>0</tilted></feature>
            <threshold>6.6709682345390320e-02</threshold>
            <left_val>-2.9209810495376587e-01</left_val>
            <right_val>3.7497198581695557e-01</right_val></_></_>
        <_>
          <!-- tree 13 -->
          <_>
            <!-- root node -->
            <feature>
              <rects>
                <_>
                  4 10 16 10 -1.</_>
                <_>
                  12 10 8 5 2.</_>
                <_>
                  4 15 8 5 2.</_></rects>
              <tilted>0</tilted></feature>
            <threshold>-8.7816037237644196e-02</threshold>
            <left_val>2.5483539700508118e-01</left_val>
            <right_val>-9.7733601927757263e-02</right_val></_></_>
        <_>
          <!-- tree 14 -->
          <_>
            <!-- root node -->
            <feature>
              <rects>
                <_>
                  5 5 10 15 -1.</_>
                <_>
                  5 10 10 5 3.</_></rects>
              <tilted>0</tilted></feature>
            <threshold>-1.2916949391365051e-01</threshold>
            <left_val>5.0711268186569214e-01</left_val>
            <right_val>-1.9073009490966797e-01</right_val></_></_>
        <_>
          <!-- tree 15 -->
          <_>
            <!-- root node -->
            <feature>
              <rects>
                <_>
                  9 0 2 6 -1.</_>
                <_>
                  9 2 2 2 3.</_></rects>
              <tilted>0</tilted></feature>
            <threshold>-5.8269309811294079e-03</threshold>
            <left_val>5.8301752805709839e-01</left_val>
            <right_val>-1.3628859817981720e-01</right_val></_></_>
        <_>
          <!-- tree 16 -->
          <_>
            <!-- root node -->
            <feature>
              <rects>
                <_>
                  8 0 3 6 -1.</_>
                <_>
                  8 2 3 2 3.</_></rects>
              <tilted>0</tilted></feature>
            <threshold>7.8671351075172424e-03</threshold>
            <left_val>-3.0856031179428101e-01</left_val>
            <right_val>2.9209890961647034e-01</right_val></_></_></trees>
      <stage_threshold>-9.8501032590866089e-01</stage_threshold>
      <parent>5</parent>
      <next>-1</next></_>
    <_>
      <!-- stage 7 -->
      <trees>
        <_>
          <!-- tree 0 -->
          <_>
            <!-- root node -->
            <feature>
              <rects>
                <_>
                  2 2 15 12 -1.</_>
                <_>
                  7 2 5 12 3.</_></rects>
              <tilted>0</tilted></feature>
            <threshold>1.4670929312705994e-01</threshold>
            <left_val>-2.7344161272048950e-01</left_val>
            <right_val>4.7893300652503967e-01</right_val></_></_>
        <_>
          <!-- tree 1 -->
          <_>
            <!-- root node -->
            <feature>
              <rects>
                <_>
                  19 17 1 3 -1.</_>
                <_>
                  19 18 1 1 3.</_></rects>
              <tilted>0</tilted></feature>
            <threshold>-5.7146989274770021e-04</threshold>
            <left_val>-6.4622402191162109e-01</left_val>
            <right_val>1.5702609717845917e-01</right_val></_></_>
        <_>
          <!-- tree 2 -->
          <_>
            <!-- root node -->
            <feature>
              <rects>
                <_>
                  0 17 1 3 -1.</_>
                <_>
                  0 18 1 1 3.</_></rects>
              <tilted>0</tilted></feature>
            <threshold>3.5962960100732744e-04</threshold>
            <left_val>1.3999040424823761e-01</left_val>
            <right_val>-6.5167701244354248e-01</right_val></_></_>
        <_>
          <!-- tree 3 -->
          <_>
            <!-- root node -->
            <feature>
              <rects>
                <_>
                  19 17 1 3 -1.</_>
                <_>
                  19 18 1 1 3.</_></rects>
              <tilted>0</tilted></feature>
            <threshold>3.8913381285965443e-04</threshold>
            <left_val>1.4526230096817017e-01</left_val>
            <right_val>-6.6818660497665405e-01</right_val></_></_>
        <_>
          <!-- tree 4 -->
          <_>
            <!-- root node -->
            <feature>
              <rects>
                <_>
                  0 17 1 3 -1.</_>
                <_>
                  0 18 1 1 3.</_></rects>
              <tilted>0</tilted></feature>
            <threshold>-4.9300648970529437e-04</threshold>
            <left_val>-6.7327100038528442e-01</left_val>
            <right_val>1.6726140677928925e-01</right_val></_></_>
        <_>
          <!-- tree 5 -->
          <_>
            <!-- root node -->
            <feature>
              <rects>
                <_>
                  4 18 13 2 -1.</_>
                <_>
                  4 19 13 1 2.</_></rects>
              <tilted>0</tilted></feature>
            <threshold>3.7977229803800583e-03</threshold>
            <left_val>-3.4227260947227478e-01</left_val>
            <right_val>2.6171231269836426e-01</right_val></_></_>
        <_>
          <!-- tree 6 -->
          <_>
            <!-- root node -->
            <feature>
              <rects>
                <_>
                  1 0 16 1 -1.</_>
                <_>
                  9 0 8 1 2.</_></rects>
              <tilted>0</tilted></feature>
            <threshold>3.8839560002088547e-03</threshold>
            <left_val>1.6627089679241180e-01</left_val>
            <right_val>-5.8735847473144531e-01</right_val></_></_>
        <_>
          <!-- tree 7 -->
          <_>
            <!-- root node -->
            <feature>
              <rects>
                <_>
                  12 9 1 4 -1.</_>
                <_>
                  12 11 1 2 2.</_></rects>
              <tilted>0</tilted></feature>
            <threshold>6.1246319673955441e-03</threshold>
            <left_val>-6.4194232225418091e-02</left_val>
            <right_val>5.1878768205642700e-01</right_val></_></_>
        <_>
          <!-- tree 8 -->
          <_>
            <!-- root node -->
            <feature>
              <rects>
                <_>
                  0 0 1 20 -1.</_>
                <_>
                  0 10 1 10 2.</_></rects>
              <tilted>0</tilted></feature>
            <threshold>-2.9744790866971016e-02</threshold>
            <left_val>-7.5828289985656738e-01</left_val>
            <right_val>1.1714880168437958e-01</right_val></_></_>
        <_>
          <!-- tree 9 -->
          <_>
            <!-- root node -->
            <feature>
              <rects>
                <_>
                  6 0 8 6 -1.</_>
                <_>
                  10 0 4 3 2.</_>
                <_>
                  6 3 4 3 2.</_></rects>
              <tilted>0</tilted></feature>
            <threshold>1.8413450568914413e-02</threshold>
            <left_val>-2.0787620544433594e-01</left_val>
            <right_val>4.2158600687980652e-01</right_val></_></_>
        <_>
          <!-- tree 10 -->
          <_>
            <!-- root node -->
            <feature>
              <rects>
                <_>
                  6 2 8 4 -1.</_>
                <_>
                  6 2 4 2 2.</_>
                <_>
                  10 4 4 2 2.</_></rects>
              <tilted>0</tilted></feature>
            <threshold>7.6994649134576321e-03</threshold>
            <left_val>-2.1972809731960297e-01</left_val>
            <right_val>3.5069718956947327e-01</right_val></_></_>
        <_>
          <!-- tree 11 -->
          <_>
            <!-- root node -->
            <feature>
              <rects>
                <_>
                  4 0 15 10 -1.</_>
                <_>
                  9 0 5 10 3.</_></rects>
              <tilted>0</tilted></feature>
            <threshold>2.0585189759731293e-01</threshold>
            <left_val>4.3140988796949387e-02</left_val>
            <right_val>-7.1727567911148071e-01</right_val></_></_>
        <_>
          <!-- tree 12 -->
          <_>
            <!-- root node -->
            <feature>
              <rects>
                <_>
                  0 0 18 4 -1.</_>
                <_>
                  9 0 9 4 2.</_></rects>
              <tilted>0</tilted></feature>
            <threshold>-9.6948117017745972e-02</threshold>
            <left_val>-9.0702271461486816e-01</left_val>
            <right_val>8.2563169300556183e-02</right_val></_></_>
        <_>
          <!-- tree 13 -->
          <_>
            <!-- root node -->
            <feature>
              <rects>
                <_>
                  4 0 15 10 -1.</_>
                <_>
                  9 0 5 10 3.</_></rects>
              <tilted>0</tilted></feature>
            <threshold>-5.7704929262399673e-02</threshold>
            <left_val>2.1307989954948425e-01</left_val>
            <right_val>-9.5919691026210785e-02</right_val></_></_></trees>
      <stage_threshold>-9.3888300657272339e-01</stage_threshold>
      <parent>6</parent>
      <next>-1</next></_>
    <_>
      <!-- stage 8 -->
      <trees>
        <_>
          <!-- tree 0 -->
          <_>
            <!-- root node -->
            <feature>
              <rects>
                <_>
                  1 5 14 9 -1.</_>
                <_>
                  8 5 7 9 2.</_></rects>
              <tilted>0</tilted></feature>
            <threshold>1.1865670233964920e-01</threshold>
            <left_val>-2.4469970166683197e-01</left_val>
            <right_val>4.5195379853248596e-01</right_val></_></_>
        <_>
          <!-- tree 1 -->
          <_>
            <!-- root node -->
            <feature>
              <rects>
                <_>
                  17 17 2 1 -1.</_>
                <_>
                  17 17 1 1 2.</_></rects>
              <tilted>0</tilted></feature>
            <threshold>-4.9384991143597290e-05</threshold>
            <left_val>2.1639490127563477e-01</left_val>
            <right_val>-4.5737570524215698e-01</right_val></_></_>
        <_>
          <!-- tree 2 -->
          <_>
            <!-- root node -->
            <feature>
              <rects>
                <_>
                  0 10 1 10 -1.</_>
                <_>
                  0 15 1 5 2.</_></rects>
              <tilted>0</tilted></feature>
            <threshold>1.0044720023870468e-02</threshold>
            <left_val>9.3424253165721893e-02</left_val>
            <right_val>-9.1462612152099609e-01</right_val></_></_>
        <_>
          <!-- tree 3 -->
          <_>
            <!-- root node -->
            <feature>
              <rects>
                <_>
                  15 19 4 1 -1.</_>
                <_>
                  15 19 2 1 2.</_></rects>
              <tilted>0</tilted></feature>
            <threshold>1.7869539442472160e-04</threshold>
            <left_val>1.3269869983196259e-01</left_val>
            <right_val>-6.1592799425125122e-01</right_val></_></_>
        <_>
          <!-- tree 4 -->
          <_>
            <!-- root node -->
            <feature>
              <rects>
                <_>
                  1 17 2 1 -1.</_>
                <_>
                  2 17 1 1 2.</_></rects>
              <tilted>0</tilted></feature>
            <threshold>-4.4626231101574376e-05</threshold>
            <left_val>2.1235440671443939e-01</left_val>
            <right_val>-4.9009189009666443e-01</right_val></_></_>
        <_>
          <!-- tree 5 -->
          <_>
            <!-- root node -->
            <feature>
              <rects>
                <_>
                  3 3 14 4 -1.</_>
                <_>
                  3 5 14 2 2.</_></rects>
              <tilted>0</tilted></feature>
            <threshold>-3.9219550788402557e-02</threshold>
            <left_val>3.6242890357971191e-01</left_val>
            <right_val>-3.2131850719451904e-01</right_val></_></_>
        <_>
          <!-- tree 6 -->
          <_>
            <!-- root node -->
            <feature>
              <rects>
                <_>
                  0 12 16 6 -1.</_>
                <_>
                  0 12 8 3 2.</_>
                <_>
                  8 15 8 3 2.</_></rects>
              <tilted>0</tilted></feature>
            <threshold>5.7655878365039825e-02</threshold>
            <left_val>-1.5192210674285889e-01</left_val>
            <right_val>6.7475128173828125e-01</right_val></_></_>
        <_>
          <!-- tree 7 -->
          <_>
            <!-- root node -->
            <feature>
              <rects>
                <_>
                  12 19 8 1 -1.</_>
                <_>
                  12 19 4 1 2.</_></rects>
              <tilted>0</tilted></feature>
            <threshold>-1.7290649935603142e-02</threshold>
            <left_val>-7.9788732528686523e-01</left_val>
            <right_val>8.9447736740112305e-02</right_val></_></_>
        <_>
          <!-- tree 8 -->
          <_>
            <!-- root node -->
            <feature>
              <rects>
                <_>
                  7 14 5 6 -1.</_>
                <_>
                  7 17 5 3 2.</_></rects>
              <tilted>0</tilted></feature>
            <threshold>-3.2618280500173569e-02</threshold>
            <left_val>5.4649728536605835e-01</left_val>
            <right_val>-1.8385539948940277e-01</right_val></_></_>
        <_>
          <!-- tree 9 -->
          <_>
            <!-- root node -->
            <feature>
              <rects>
                <_>
                  11 10 4 9 -1.</_>
                <_>
                  11 13 4 3 3.</_></rects>
              <tilted>0</tilted></feature>
            <threshold>-1.9093429669737816e-02</threshold>
            <left_val>2.2287650406360626e-01</left_val>
            <right_val>-9.3579582870006561e-02</right_val></_></_>
        <_>
          <!-- tree 10 -->
          <_>
            <!-- root node -->
            <feature>
              <rects>
                <_>
                  5 10 4 9 -1.</_>
                <_>
                  5 13 4 3 3.</_></rects>
              <tilted>0</tilted></feature>
            <threshold>-1.8217839300632477e-02</threshold>
            <left_val>3.8153180480003357e-01</left_val>
            <right_val>-2.3949269950389862e-01</right_val></_></_>
        <_>
          <!-- tree 11 -->
          <_>
            <!-- root node -->
            <feature>
              <rects>
                <_>
                  12 19 8 1 -1.</_>
                <_>
                  12 19 4 1 2.</_></rects>
              <tilted>0</tilted></feature>
            <threshold>4.6498249866999686e-04</threshold>
            <left_val>1.0316529870033264e-01</left_val>
            <right_val>-6.0199612379074097e-01</right_val></_></_>
        <_>
          <!-- tree 12 -->
          <_>
            <!-- root node -->
            <feature>
              <rects>
                <_>
                  4 2 4 2 -1.</_>
                <_>
                  4 2 2 1 2.</_>
                <_>
                  6 3 2 1 2.</_></rects>
              <tilted>0</tilted></feature>
            <threshold>-2.8625030536204576e-03</threshold>
            <left_val>6.2928199768066406e-01</left_val>
            <right_val>-1.5158259868621826e-01</right_val></_></_>
        <_>
          <!-- tree 13 -->
          <_>
            <!-- root node -->
            <feature>
              <rects>
                <_>
                  11 1 1 4 -1.</_>
                <_>
                  11 3 1 2 2.</_></rects>
              <tilted>0</tilted></feature>
            <threshold>1.5454089734703302e-03</threshold>
            <left_val>-1.0462210327386856e-01</left_val>
            <right_val>2.1573509275913239e-01</right_val></_></_>
        <_>
          <!-- tree 14 -->
          <_>
            <!-- root node -->
            <feature>
              <rects>
                <_>
                  7 2 6 2 -1.</_>
                <_>
                  7 2 3 1 2.</_>
                <_>
                  10 3 3 1 2.</_></rects>
              <tilted>0</tilted></feature>
            <threshold>-4.5022717677056789e-03</threshold>
            <left_val>4.6570619940757751e-01</left_val>
            <right_val>-1.9878810644149780e-01</right_val></_></_>
        <_>
          <!-- tree 15 -->
          <_>
            <!-- root node -->
            <feature>
              <rects>
                <_>
                  18 19 2 1 -1.</_>
                <_>
                  18 19 1 1 2.</_></rects>
              <tilted>0</tilted></feature>
            <threshold>-8.2021398702636361e-04</threshold>
            <left_val>-4.9926820397377014e-01</left_val>
            <right_val>1.1521170288324356e-01</right_val></_></_>
        <_>
          <!-- tree 16 -->
          <_>
            <!-- root node -->
            <feature>
              <rects>
                <_>
                  0 19 8 1 -1.</_>
                <_>
                  4 19 4 1 2.</_></rects>
              <tilted>0</tilted></feature>
            <threshold>-9.6681102877482772e-04</threshold>
            <left_val>1.9088409841060638e-01</left_val>
            <right_val>-4.9742770195007324e-01</right_val></_></_></trees>
      <stage_threshold>-9.3611067533493042e-01</stage_threshold>
      <parent>7</parent>
      <next>-1</next></_>
    <_>
      <!-- stage 9 -->
      <trees>
        <_>
          <!-- tree 0 -->
          <_>
            <!-- root node -->
            <feature>
              <rects>
                <_>
                  0 10 16 10 -1.</_>
                <_>
                  0 10 8 5 2.</_>
                <_>
                  8 15 8 5 2.</_></rects>
              <tilted>0</tilted></feature>
            <threshold>-1.6029380261898041e-01</threshold>
            <left_val>5.5367511510848999e-01</left_val>
            <right_val>-1.9358429312705994e-01</right_val></_></_>
        <_>
          <!-- tree 1 -->
          <_>
            <!-- root node -->
            <feature>
              <rects>
                <_>
                  11 5 4 2 -1.</_>
                <_>
                  13 5 2 1 2.</_>
                <_>
                  11 6 2 1 2.</_></rects>
              <tilted>0</tilted></feature>
            <threshold>-4.5859538950026035e-03</threshold>
            <left_val>3.7601751089096069e-01</left_val>
            <right_val>-4.3671660125255585e-02</right_val></_></_>
        <_>
          <!-- tree 2 -->
          <_>
            <!-- root node -->
            <feature>
              <rects>
                <_>
                  0 19 2 1 -1.</_>
                <_>
                  1 19 1 1 2.</_></rects>
              <tilted>0</tilted></feature>
            <threshold>1.0582769755274057e-04</threshold>
            <left_val>1.2753920257091522e-01</left_val>
            <right_val>-6.4123070240020752e-01</right_val></_></_>
        <_>
          <!-- tree 3 -->
          <_>
            <!-- root node -->
            <feature>
              <rects>
                <_>
                  11 5 4 2 -1.</_>
                <_>
                  13 5 2 1 2.</_>
                <_>
                  11 6 2 1 2.</_></rects>
              <tilted>0</tilted></feature>
            <threshold>9.6236862009391189e-04</threshold>
            <left_val>-9.5420151948928833e-02</left_val>
            <right_val>3.0723160505294800e-01</right_val></_></_>
        <_>
          <!-- tree 4 -->
          <_>
            <!-- root node -->
            <feature>
              <rects>
                <_>
                  0 4 1 16 -1.</_>
                <_>
                  0 12 1 8 2.</_></rects>
              <tilted>0</tilted></feature>
            <threshold>8.6326841264963150e-03</threshold>
            <left_val>1.0482589900493622e-01</left_val>
            <right_val>-8.1142789125442505e-01</right_val></_></_>
        <_>
          <!-- tree 5 -->
          <_>
            <!-- root node -->
            <feature>
              <rects>
                <_>
                  13 2 7 12 -1.</_>
                <_>
                  13 6 7 4 3.</_></rects>
              <tilted>0</tilted></feature>
            <threshold>6.4390413463115692e-02</threshold>
            <left_val>2.4030469357967377e-02</left_val>
            <right_val>-3.4330660104751587e-01</right_val></_></_>
        <_>
          <!-- tree 6 -->
          <_>
            <!-- root node -->
            <feature>
              <rects>
                <_>
                  0 2 7 12 -1.</_>
                <_>
                  0 6 7 4 3.</_></rects>
              <tilted>0</tilted></feature>
            <threshold>-2.4943130090832710e-02</threshold>
            <left_val>3.1119799613952637e-01</left_val>
            <right_val>-3.1213310360908508e-01</right_val></_></_>
        <_>
          <!-- tree 7 -->
          <_>
            <!-- root node -->
            <feature>
              <rects>
                <_>
                  0 0 20 2 -1.</_>
                <_>
                  0 0 10 2 2.</_></rects>
              <tilted>0</tilted></feature>
            <threshold>-1.4240009710192680e-02</threshold>
            <left_val>-6.9088262319564819e-01</left_val>
            <right_val>1.0895130038261414e-01</right_val></_></_>
        <_>
          <!-- tree 8 -->
          <_>
            <!-- root node -->
            <feature>
              <rects>
                <_>
                  0 0 20 6 -1.</_>
                <_>
                  10 0 10 6 2.</_></rects>
              <tilted>0</tilted></feature>
            <threshold>-1.7333559691905975e-01</threshold>
            <left_val>-9.5595878362655640e-01</left_val>
            <right_val>6.3367962837219238e-02</right_val></_></_>
        <_>
          <!-- tree 9 -->
          <_>
            <!-- root node -->
            <feature>
              <rects>
                <_>
                  3 5 16 7 -1.</_>
                <_>
                  3 5 8 7 2.</_></rects>
              <tilted>0</tilted></feature>
            <threshold>1.3184140622615814e-01</threshold>
            <left_val>-1.0411500185728073e-01</left_val>
            <right_val>3.4467849135398865e-01</right_val></_></_>
        <_>
          <!-- tree 10 -->
          <_>
            <!-- root node -->
            <feature>
              <rects>
                <_>
                  3 6 3 1 -1.</_>
                <_>
                  4 6 1 1 3.</_></rects>
              <tilted>0</tilted></feature>
            <threshold>-1.9611890893429518e-03</threshold>
            <left_val>5.0482988357543945e-01</left_val>
            <right_val>-1.5062840282917023e-01</right_val></_></_>
        <_>
          <!-- tree 11 -->
          <_>
            <!-- root node -->
            <feature>
              <rects>
                <_>
                  14 14 2 6 -1.</_>
                <_>
                  14 17 2 3 2.</_></rects>
              <tilted>0</tilted></feature>
            <threshold>2.5464040227234364e-03</threshold>
            <left_val>-1.7995379865169525e-01</left_val>
            <right_val>2.5831010937690735e-01</right_val></_></_>
        <_>
          <!-- tree 12 -->
          <_>
            <!-- root node -->
            <feature>
              <rects>
                <_>
                  0 0 10 6 -1.</_>
                <_>
                  5 0 5 6 2.</_></rects>
              <tilted>0</tilted></feature>
            <threshold>1.0263419710099697e-02</threshold>
            <left_val>-4.1234520077705383e-01</left_val>
            <right_val>2.1255110204219818e-01</right_val></_></_>
        <_>
          <!-- tree 13 -->
          <_>
            <!-- root node -->
            <feature>
              <rects>
                <_>
                  19 7 1 12 -1.</_>
                <_>
                  19 11 1 4 3.</_></rects>
              <tilted>0</tilted></feature>
            <threshold>-1.2681540101766586e-02</threshold>
            <left_val>-8.9200431108474731e-01</left_val>
            <right_val>7.1400009095668793e-02</right_val></_></_>
        <_>
          <!-- tree 14 -->
          <_>
            <!-- root node -->
            <feature>
              <rects>
                <_>
                  0 6 1 12 -1.</_>
                <_>
                  0 10 1 4 3.</_></rects>
              <tilted>0</tilted></feature>
            <threshold>5.0087519921362400e-03</threshold>
            <left_val>1.1367680132389069e-01</left_val>
            <right_val>-6.0877871513366699e-01</right_val></_></_>
        <_>
          <!-- tree 15 -->
          <_>
            <!-- root node -->
            <feature>
              <rects>
                <_>
                  4 0 15 1 -1.</_>
                <_>
                  9 0 5 1 3.</_></rects>
              <tilted>0</tilted></feature>
            <threshold>-7.8173410147428513e-03</threshold>
            <left_val>-4.5040690898895264e-01</left_val>
            <right_val>9.0948462486267090e-02</right_val></_></_>
        <_>
          <!-- tree 16 -->
          <_>
            <!-- root node -->
            <feature>
              <rects>
                <_>
                  0 13 4 1 -1.</_>
                <_>
                  2 13 2 1 2.</_></rects>
              <tilted>0</tilted></feature>
            <threshold>-1.7860670341178775e-03</threshold>
            <left_val>2.9553940892219543e-01</left_val>
            <right_val>-2.9234528541564941e-01</right_val></_></_>
        <_>
          <!-- tree 17 -->
          <_>
            <!-- root node -->
            <feature>
              <rects>
                <_>
                  4 0 12 1 -1.</_>
                <_>
                  8 0 4 1 3.</_></rects>
              <tilted>0</tilted></feature>
            <threshold>6.3497810624539852e-03</threshold>
            <left_val>1.3789980113506317e-01</left_val>
            <right_val>-5.4169952869415283e-01</right_val></_></_></trees>
      <stage_threshold>-7.8529858589172363e-01</stage_threshold>
      <parent>8</parent>
      <next>-1</next></_>
    <_>
      <!-- stage 10 -->
      <trees>
        <_>
          <!-- tree 0 -->
          <_>
            <!-- root node -->
            <feature>
              <rects>
                <_>
                  4 17 3 2 -1.</_>
                <_>
                  4 18 3 1 2.</_></rects>
              <tilted>0</tilted></feature>
            <threshold>6.3962262356653810e-04</threshold>
            <left_val>-3.2773050665855408e-01</left_val>
            <right_val>3.0671268701553345e-01</right_val></_></_>
        <_>
          <!-- tree 1 -->
          <_>
            <!-- root node -->
            <feature>
              <rects>
                <_>
                  0 15 20 4 -1.</_>
                <_>
                  0 17 20 2 2.</_></rects>
              <tilted>0</tilted></feature>
            <threshold>-1.6480769962072372e-02</threshold>
            <left_val>3.5821390151977539e-01</left_val>
            <right_val>-2.3339529335498810e-01</right_val></_></_>
        <_>
          <!-- tree 2 -->
          <_>
            <!-- root node -->
            <feature>
              <rects>
                <_>
                  0 8 18 12 -1.</_>
                <_>
                  0 8 9 6 2.</_>
                <_>
                  9 14 9 6 2.</_></rects>
              <tilted>0</tilted></feature>
            <threshold>1.9379940629005432e-01</threshold>
            <left_val>-1.2346660345792770e-01</left_val>
            <right_val>6.5078288316726685e-01</right_val></_></_>
        <_>
          <!-- tree 3 -->
          <_>
            <!-- root node -->
            <feature>
              <rects>
                <_>
                  0 15 20 5 -1.</_>
                <_>
                  0 15 10 5 2.</_></rects>
              <tilted>0</tilted></feature>
            <threshold>-1.8651179969310760e-01</threshold>
            <left_val>-1.</left_val>
            <right_val>9.5855869352817535e-02</right_val></_></_>
        <_>
          <!-- tree 4 -->
          <_>
            <!-- root node -->
            <feature>
              <rects>
                <_>
                  0 7 20 1 -1.</_>
                <_>
                  10 7 10 1 2.</_></rects>
              <tilted>0</tilted></feature>
            <threshold>1.1026120046153665e-03</threshold>
            <left_val>-3.0823469161987305e-01</left_val>
            <right_val>2.3874869942665100e-01</right_val></_></_>
        <_>
          <!-- tree 5 -->
          <_>
            <!-- root node -->
            <feature>
              <rects>
                <_>
                  6 16 10 4 -1.</_>
                <_>
                  11 16 5 2 2.</_>
                <_>
                  6 18 5 2 2.</_></rects>
              <tilted>0</tilted></feature>
            <threshold>-3.9451001212000847e-03</threshold>
            <left_val>1.7788660526275635e-01</left_val>
            <right_val>-1.3594290614128113e-01</right_val></_></_>
        <_>
          <!-- tree 6 -->
          <_>
            <!-- root node -->
            <feature>
              <rects>
                <_>
                  0 0 1 20 -1.</_>
                <_>
                  0 10 1 10 2.</_></rects>
              <tilted>0</tilted></feature>
            <threshold>-1.4685009955428541e-04</threshold>
            <left_val>1.9068500399589539e-01</left_val>
            <right_val>-4.8168298602104187e-01</right_val></_></_>
        <_>
          <!-- tree 7 -->
          <_>
            <!-- root node -->
            <feature>
              <rects>
                <_>
                  15 19 4 1 -1.</_>
                <_>
                  15 19 2 1 2.</_></rects>
              <tilted>0</tilted></feature>
            <threshold>-5.4160449508344755e-05</threshold>
            <left_val>6.9454193115234375e-02</left_val>
            <right_val>-3.8037571310997009e-01</right_val></_></_>
        <_>
          <!-- tree 8 -->
          <_>
            <!-- root node -->
            <feature>
              <rects>
                <_>
                  1 19 4 1 -1.</_>
                <_>
                  3 19 2 1 2.</_></rects>
              <tilted>0</tilted></feature>
            <threshold>-5.7875178754329681e-05</threshold>
            <left_val>1.5582740306854248e-01</left_val>
            <right_val>-5.1542711257934570e-01</right_val></_></_>
        <_>
          <!-- tree 9 -->
          <_>
            <!-- root node -->
            <feature>
              <rects>
                <_>
                  12 0 7 4 -1.</_>
                <_>
                  12 2 7 2 2.</_></rects>
              <tilted>0</tilted></feature>
            <threshold>-3.8541320245712996e-03</threshold>
            <left_val>-2.0917490124702454e-01</left_val>
            <right_val>7.1698479354381561e-02</right_val></_></_>
        <_>
          <!-- tree 10 -->
          <_>
            <!-- root node -->
            <feature>
              <rects>
                <_>
                  4 1 6 2 -1.</_>
                <_>
                  4 1 3 1 2.</_>
                <_>
                  7 2 3 1 2.</_></rects>
              <tilted>0</tilted></feature>
            <threshold>-1.8293890170753002e-03</threshold>
            <left_val>4.7785198688507080e-01</left_val>
            <right_val>-1.6517120599746704e-01</right_val></_></_>
        <_>
          <!-- tree 11 -->
          <_>
            <!-- root node -->
            <feature>
              <rects>
                <_>
                  6 3 9 1 -1.</_>
                <_>
                  9 3 3 1 3.</_></rects>
              <tilted>0</tilted></feature>
            <threshold>5.0946809351444244e-03</threshold>
            <left_val>-1.6549779474735260e-01</left_val>
            <right_val>3.2608601450920105e-01</right_val></_></_>
        <_>
          <!-- tree 12 -->
          <_>
            <!-- root node -->
            <feature>
              <rects>
                <_>
                  9 18 1 2 -1.</_>
                <_>
                  9 19 1 1 2.</_></rects>
              <tilted>0</tilted></feature>
            <threshold>2.6665240875445306e-04</threshold>
            <left_val>-3.2811158895492554e-01</left_val>
            <right_val>2.6542380452156067e-01</right_val></_></_>
        <_>
          <!-- tree 13 -->
          <_>
            <!-- root node -->
            <feature>
              <rects>
                <_>
                  5 19 12 1 -1.</_>
                <_>
                  9 19 4 1 3.</_></rects>
              <tilted>0</tilted></feature>
            <threshold>1.8798999488353729e-02</threshold>
            <left_val>3.1042389571666718e-02</left_val>
            <right_val>-8.4009629487991333e-01</right_val></_></_>
        <_>
          <!-- tree 14 -->
          <_>
            <!-- root node -->
            <feature>
              <rects>
                <_>
                  4 3 3 2 -1.</_>
                <_>
                  4 4 3 1 2.</_></rects>
              <tilted>0</tilted></feature>
            <threshold>2.5392980314791203e-03</threshold>
            <left_val>-1.5189799666404724e-01</left_val>
            <right_val>5.1758819818496704e-01</right_val></_></_>
        <_>
          <!-- tree 15 -->
          <_>
            <!-- root node -->
            <feature>
              <rects>
                <_>
                  17 5 3 15 -1.</_>
                <_>
                  17 10 3 5 3.</_></rects>
              <tilted>0</tilted></feature>
            <threshold>1.7192449420690536e-02</threshold>
            <left_val>7.9668357968330383e-02</left_val>
            <right_val>-2.0069999992847443e-01</right_val></_></_>
        <_>
          <!-- tree 16 -->
          <_>
            <!-- root node -->
            <feature>
              <rects>
                <_>
                  0 5 3 15 -1.</_>
                <_>
                  0 10 3 5 3.</_></rects>
              <tilted>0</tilted></feature>
            <threshold>-6.0964241623878479e-02</threshold>
            <left_val>-9.3730437755584717e-01</left_val>
            <right_val>7.5351953506469727e-02</right_val></_></_>
        <_>
          <!-- tree 17 -->
          <_>
            <!-- root node -->
            <feature>
              <rects>
                <_>
                  14 16 6 2 -1.</_>
                <_>
                  14 17 6 1 2.</_></rects>
              <tilted>0</tilted></feature>
            <threshold>5.5296430364251137e-03</threshold>
            <left_val>3.1206810846924782e-02</left_val>
            <right_val>-5.5488789081573486e-01</right_val></_></_>
        <_>
          <!-- tree 18 -->
          <_>
            <!-- root node -->
            <feature>
              <rects>
                <_>
                  0 16 6 2 -1.</_>
                <_>
                  0 17 6 1 2.</_></rects>
              <tilted>0</tilted></feature>
            <threshold>5.2600051276385784e-04</threshold>
            <left_val>-3.0399459600448608e-01</left_val>
            <right_val>2.9469761252403259e-01</right_val></_></_></trees>
      <stage_threshold>-8.5104358196258545e-01</stage_threshold>
      <parent>9</parent>
      <next>-1</next></_>
    <_>
      <!-- stage 11 -->
      <trees>
        <_>
          <!-- tree 0 -->
          <_>
            <!-- root node -->
            <feature>
              <rects>
                <_>
                  0 16 1 4 -1.</_>
                <_>
                  0 18 1 2 2.</_></rects>
              <tilted>0</tilted></feature>
            <threshold>1.1908999877050519e-03</threshold>
            <left_val>1.6006129980087280e-01</left_val>
            <right_val>-5.9761947393417358e-01</right_val></_></_>
        <_>
          <!-- tree 1 -->
          <_>
            <!-- root node -->
            <feature>
              <rects>
                <_>
                  5 0 12 12 -1.</_>
                <_>
                  11 0 6 6 2.</_>
                <_>
                  5 6 6 6 2.</_></rects>
              <tilted>0</tilted></feature>
            <threshold>-1.0239779949188232e-01</threshold>
            <left_val>2.6394289731979370e-01</left_val>
            <right_val>-1.2655510008335114e-01</right_val></_></_>
        <_>
          <!-- tree 2 -->
          <_>
            <!-- root node -->
            <feature>
              <rects>
                <_>
                  2 18 2 2 -1.</_>
                <_>
                  2 19 2 1 2.</_></rects>
              <tilted>0</tilted></feature>
            <threshold>4.7806359361857176e-05</threshold>
            <left_val>-3.4751391410827637e-01</left_val>
            <right_val>1.9519560039043427e-01</right_val></_></_>
        <_>
          <!-- tree 3 -->
          <_>
            <!-- root node -->
            <feature>
              <rects>
                <_>
                  5 14 12 6 -1.</_>
                <_>
                  11 14 6 3 2.</_>
                <_>
                  5 17 6 3 2.</_></rects>
              <tilted>0</tilted></feature>
            <threshold>-3.0146410688757896e-02</threshold>
            <left_val>3.4632620215415955e-01</left_val>
            <right_val>-9.1739200055599213e-02</right_val></_></_>
        <_>
          <!-- tree 4 -->
          <_>
            <!-- root node -->
            <feature>
              <rects>
                <_>
                  4 14 2 6 -1.</_>
                <_>
                  4 17 2 3 2.</_></rects>
              <tilted>0</tilted></feature>
            <threshold>3.1015709973871708e-03</threshold>
            <left_val>-2.6308530569076538e-01</left_val>
            <right_val>3.0591988563537598e-01</right_val></_></_>
        <_>
          <!-- tree 5 -->
          <_>
            <!-- root node -->
            <feature>
              <rects>
                <_>
                  5 14 12 6 -1.</_>
                <_>
                  11 14 6 3 2.</_>
                <_>
                  5 17 6 3 2.</_></rects>
              <tilted>0</tilted></feature>
            <threshold>7.7416971325874329e-02</threshold>
            <left_val>-2.1343970671296120e-02</left_val>
            <right_val>5.1201057434082031e-01</right_val></_></_>
        <_>
          <!-- tree 6 -->
          <_>
            <!-- root node -->
            <feature>
              <rects>
                <_>
                  3 14 12 6 -1.</_>
                <_>
                  3 14 6 3 2.</_>
                <_>
                  9 17 6 3 2.</_></rects>
              <tilted>0</tilted></feature>
            <threshold>3.6091409623622894e-02</threshold>
            <left_val>-1.5016320347785950e-01</left_val>
            <right_val>5.5977761745452881e-01</right_val></_></_>
        <_>
          <!-- tree 7 -->
          <_>
            <!-- root node -->
            <feature>
              <rects>
                <_>
                  11 0 2 4 -1.</_>
                <_>
                  11 2 2 2 2.</_></rects>
              <tilted>0</tilted></feature>
            <threshold>5.2612711442634463e-05</threshold>
            <left_val>-1.1152169853448868e-01</left_val>
            <right_val>8.5149340331554413e-02</right_val></_></_>
        <_>
          <!-- tree 8 -->
          <_>
            <!-- root node -->
            <feature>
              <rects>
                <_>
                  7 0 4 1 -1.</_>
                <_>
                  9 0 2 1 2.</_></rects>
              <tilted>0</tilted></feature>
            <threshold>-1.6122120432555676e-03</threshold>
            <left_val>-5.4520642757415771e-01</left_val>
            <right_val>1.5709920227527618e-01</right_val></_></_>
        <_>
          <!-- tree 9 -->
          <_>
            <!-- root node -->
            <feature>
              <rects>
                <_>
                  19 18 1 2 -1.</_>
                <_>
                  19 19 1 1 2.</_></rects>
              <tilted>0</tilted></feature>
            <threshold>2.6904689730145037e-04</threshold>
            <left_val>1.6096949577331543e-01</left_val>
            <right_val>-5.8240038156509399e-01</right_val></_></_>
        <_>
          <!-- tree 10 -->
          <_>
            <!-- root node -->
            <feature>
              <rects>
                <_>
                  0 7 18 13 -1.</_>
                <_>
                  6 7 6 13 3.</_></rects>
              <tilted>0</tilted></feature>
            <threshold>-3.2053551077842712e-01</threshold>
            <left_val>-9.3609189987182617e-01</left_val>
            <right_val>6.8734653294086456e-02</right_val></_></_>
        <_>
          <!-- tree 11 -->
          <_>
            <!-- root node -->
            <feature>
              <rects>
                <_>
                  15 7 2 2 -1.</_>
                <_>
                  16 7 1 1 2.</_>
                <_>
                  15 8 1 1 2.</_></rects>
              <tilted>0</tilted></feature>
            <threshold>7.5145397568121552e-04</threshold>
            <left_val>-9.3093439936637878e-02</left_val>
            <right_val>2.1122290194034576e-01</right_val></_></_>
        <_>
          <!-- tree 12 -->
          <_>
            <!-- root node -->
            <feature>
              <rects>
                <_>
                  3 7 2 2 -1.</_>
                <_>
                  3 7 1 1 2.</_>
                <_>
                  4 8 1 1 2.</_></rects>
              <tilted>0</tilted></feature>
            <threshold>-8.1187090836465359e-04</threshold>
            <left_val>4.4605389237403870e-01</left_val>
            <right_val>-1.5863800048828125e-01</right_val></_></_>
        <_>
          <!-- tree 13 -->
          <_>
            <!-- root node -->
            <feature>
              <rects>
                <_>
                  5 19 12 1 -1.</_>
                <_>
                  9 19 4 1 3.</_></rects>
              <tilted>0</tilted></feature>
            <threshold>7.1016959846019745e-03</threshold>
            <left_val>6.7359596490859985e-02</left_val>
            <right_val>-4.0425759553909302e-01</right_val></_></_>
        <_>
          <!-- tree 14 -->
          <_>
            <!-- root node -->
            <feature>
              <rects>
                <_>
                  6 5 2 4 -1.</_>
                <_>
                  6 5 1 2 2.</_>
                <_>
                  7 7 1 2 2.</_></rects>
              <tilted>0</tilted></feature>
            <threshold>1.0744000319391489e-03</threshold>
            <left_val>-2.0571279525756836e-01</left_val>
            <right_val>3.5178628563880920e-01</right_val></_></_>
        <_>
          <!-- tree 15 -->
          <_>
            <!-- root node -->
            <feature>
              <rects>
                <_>
                  12 15 2 3 -1.</_>
                <_>
                  12 15 1 3 2.</_></rects>
              <tilted>0</tilted></feature>
            <threshold>-4.8961950233206153e-04</threshold>
            <left_val>1.2720249593257904e-01</left_val>
            <right_val>-1.0856650024652481e-01</right_val></_></_>
        <_>
          <!-- tree 16 -->
          <_>
            <!-- root node -->
            <feature>
              <rects>
                <_>
                  6 15 2 3 -1.</_>
                <_>
                  7 15 1 3 2.</_></rects>
              <tilted>0</tilted></feature>
            <threshold>-1.5145200304687023e-03</threshold>
            <left_val>4.1091358661651611e-01</left_val>
            <right_val>-1.8579959869384766e-01</right_val></_></_>
        <_>
          <!-- tree 17 -->
          <_>
            <!-- root node -->
            <feature>
              <rects>
                <_>
                  8 0 4 4 -1.</_>
                <_>
                  10 0 2 2 2.</_>
                <_>
                  8 2 2 2 2.</_></rects>
              <tilted>0</tilted></feature>
            <threshold>1.1113369837403297e-03</threshold>
            <left_val>-2.8426098823547363e-01</left_val>
            <right_val>2.7622568607330322e-01</right_val></_></_>
        <_>
          <!-- tree 18 -->
          <_>
            <!-- root node -->
            <feature>
              <rects>
                <_>
                  0 14 1 6 -1.</_>
                <_>
                  0 17 1 3 2.</_></rects>
              <tilted>0</tilted></feature>
            <threshold>-3.5339330788701773e-03</threshold>
            <left_val>-8.6078947782516479e-01</left_val>
            <right_val>8.6084946990013123e-02</right_val></_></_>
        <_>
          <!-- tree 19 -->
          <_>
            <!-- root node -->
            <feature>
              <rects>
                <_>
                  18 2 2 3 -1.</_>
                <_>
                  18 2 1 3 2.</_></rects>
              <tilted>0</tilted></feature>
            <threshold>6.4421899151057005e-04</threshold>
            <left_val>1.5170510113239288e-01</left_val>
            <right_val>-4.7853940725326538e-01</right_val></_></_>
        <_>
          <!-- tree 20 -->
          <_>
            <!-- root node -->
            <feature>
              <rects>
                <_>
                  0 2 2 3 -1.</_>
                <_>
                  1 2 1 3 2.</_></rects>
              <tilted>0</tilted></feature>
            <threshold>-8.8163680629804730e-04</threshold>
            <left_val>-5.1609957218170166e-01</left_val>
            <right_val>1.3180750608444214e-01</right_val></_></_>
        <_>
          <!-- tree 21 -->
          <_>
            <!-- root node -->
            <feature>
              <rects>
                <_>
                  11 5 3 3 -1.</_>
                <_>
                  11 6 3 1 3.</_></rects>
              <tilted>0</tilted></feature>
            <threshold>2.3210180923342705e-02</threshold>
            <left_val>-2.9504440724849701e-02</left_val>
            <right_val>8.9818859100341797e-01</right_val></_></_>
        <_>
          <!-- tree 22 -->
          <_>
            <!-- root node -->
            <feature>
              <rects>
                <_>
                  5 16 2 2 -1.</_>
                <_>
                  5 16 1 1 2.</_>
                <_>
                  6 17 1 1 2.</_></rects>
              <tilted>0</tilted></feature>
            <threshold>4.2502011638134718e-05</threshold>
            <left_val>-2.5587511062622070e-01</left_val>
            <right_val>2.7120739221572876e-01</right_val></_></_></trees>
      <stage_threshold>-1.0827449560165405e+00</stage_threshold>
      <parent>10</parent>
      <next>-1</next></_>
    <_>
      <!-- stage 12 -->
      <trees>
        <_>
          <!-- tree 0 -->
          <_>
            <!-- root node -->
            <feature>
              <rects>
                <_>
                  8 8 3 9 -1.</_>
                <_>
                  8 11 3 3 3.</_></rects>
              <tilted>0</tilted></feature>
            <threshold>4.2700830847024918e-02</threshold>
            <left_val>-1.5503959357738495e-01</left_val>
            <right_val>5.6294631958007812e-01</right_val></_></_>
        <_>
          <!-- tree 1 -->
          <_>
            <!-- root node -->
            <feature>
              <rects>
                <_>
                  14 14 6 2 -1.</_>
                <_>
                  14 14 3 2 2.</_></rects>
              <tilted>0</tilted></feature>
            <threshold>-4.0938709862530231e-03</threshold>
            <left_val>1.4680300652980804e-01</left_val>
            <right_val>-1.8343830108642578e-01</right_val></_></_>
        <_>
          <!-- tree 2 -->
          <_>
            <!-- root node -->
            <feature>
              <rects>
                <_>
                  1 12 16 8 -1.</_>
                <_>
                  1 12 8 4 2.</_>
                <_>
                  9 16 8 4 2.</_></rects>
              <tilted>0</tilted></feature>
            <threshold>-1.6086630523204803e-01</threshold>
            <left_val>7.0227718353271484e-01</left_val>
            <right_val>-1.0467460006475449e-01</right_val></_></_>
        <_>
          <!-- tree 3 -->
          <_>
            <!-- root node -->
            <feature>
              <rects>
                <_>
                  19 15 1 4 -1.</_>
                <_>
                  19 17 1 2 2.</_></rects>
              <tilted>0</tilted></feature>
            <threshold>1.0410239920020103e-03</threshold>
            <left_val>1.1449600011110306e-01</left_val>
            <right_val>-4.3385100364685059e-01</right_val></_></_>
        <_>
          <!-- tree 4 -->
          <_>
            <!-- root node -->
            <feature>
              <rects>
                <_>
                  5 0 9 4 -1.</_>
                <_>
                  5 2 9 2 2.</_></rects>
              <tilted>0</tilted></feature>
            <threshold>1.4457330107688904e-02</threshold>
            <left_val>-2.5119468569755554e-01</left_val>
            <right_val>2.9032859206199646e-01</right_val></_></_>
        <_>
          <!-- tree 5 -->
          <_>
            <!-- root node -->
            <feature>
              <rects>
                <_>
                  2 12 18 6 -1.</_>
                <_>
                  11 12 9 3 2.</_>
                <_>
                  2 15 9 3 2.</_></rects>
              <tilted>0</tilted></feature>
            <threshold>-2.6056870818138123e-02</threshold>
            <left_val>2.7359399199485779e-01</left_val>
            <right_val>-1.6215269267559052e-01</right_val></_></_>
        <_>
          <!-- tree 6 -->
          <_>
            <!-- root node -->
            <feature>
              <rects>
                <_>
                  0 14 6 3 -1.</_>
                <_>
                  3 14 3 3 2.</_></rects>
              <tilted>0</tilted></feature>
            <threshold>-7.6197870075702667e-03</threshold>
            <left_val>2.2510330379009247e-01</left_val>
            <right_val>-3.4230309724807739e-01</right_val></_></_>
        <_>
          <!-- tree 7 -->
          <_>
            <!-- root node -->
            <feature>
              <rects>
                <_>
                  8 0 6 6 -1.</_>
                <_>
                  8 2 6 2 3.</_></rects>
              <tilted>0</tilted></feature>
            <threshold>-8.3908289670944214e-03</threshold>
            <left_val>3.5962200164794922e-01</left_val>
            <right_val>-1.2770059704780579e-01</right_val></_></_>
        <_>
          <!-- tree 8 -->
          <_>
            <!-- root node -->
            <feature>
              <rects>
                <_>
                  6 1 4 10 -1.</_>
                <_>
                  6 6 4 5 2.</_></rects>
              <tilted>0</tilted></feature>
            <threshold>-3.2202560454607010e-02</threshold>
            <left_val>2.2331850230693817e-01</left_val>
            <right_val>-3.4896650910377502e-01</right_val></_></_>
        <_>
          <!-- tree 9 -->
          <_>
            <!-- root node -->
            <feature>
              <rects>
                <_>
                  4 19 15 1 -1.</_>
                <_>
                  9 19 5 1 3.</_></rects>
              <tilted>0</tilted></feature>
            <threshold>-4.6137429773807526e-02</threshold>
            <left_val>-9.2128562927246094e-01</left_val>
            <right_val>1.2141760438680649e-02</right_val></_></_>
        <_>
          <!-- tree 10 -->
          <_>
            <!-- root node -->
            <feature>
              <rects>
                <_>
                  1 19 15 1 -1.</_>
                <_>
                  6 19 5 1 3.</_></rects>
              <tilted>0</tilted></feature>
            <threshold>6.6260867752134800e-03</threshold>
            <left_val>1.0719840228557587e-01</left_val>
            <right_val>-6.9415718317031860e-01</right_val></_></_>
        <_>
          <!-- tree 11 -->
          <_>
            <!-- root node -->
            <feature>
              <rects>
                <_>
                  19 5 1 3 -1.</_>
                <_>
                  19 6 1 1 3.</_></rects>
              <tilted>0</tilted></feature>
            <threshold>-4.3747341260313988e-04</threshold>
            <left_val>-5.8015632629394531e-01</left_val>
            <right_val>1.2705819308757782e-01</right_val></_></_>
        <_>
          <!-- tree 12 -->
          <_>
            <!-- root node -->
            <feature>
              <rects>
                <_>
                  4 16 10 4 -1.</_>
                <_>
                  4 16 5 2 2.</_>
                <_>
                  9 18 5 2 2.</_></rects>
              <tilted>0</tilted></feature>
            <threshold>8.9435782283544540e-03</threshold>
            <left_val>-1.8754139542579651e-01</left_val>
            <right_val>3.7090879678726196e-01</right_val></_></_>
        <_>
          <!-- tree 13 -->
          <_>
            <!-- root node -->
            <feature>
              <rects>
                <_>
                  18 12 2 8 -1.</_>
                <_>
                  19 12 1 4 2.</_>
                <_>
                  18 16 1 4 2.</_></rects>
              <tilted>0</tilted></feature>
            <threshold>6.6242050379514694e-03</threshold>
            <left_val>5.3890131413936615e-02</left_val>
            <right_val>-7.3351448774337769e-01</right_val></_></_>
        <_>
          <!-- tree 14 -->
          <_>
            <!-- root node -->
            <feature>
              <rects>
                <_>
                  0 15 16 4 -1.</_>
                <_>
                  0 15 8 2 2.</_>
                <_>
                  8 17 8 2 2.</_></rects>
              <tilted>0</tilted></feature>
            <threshold>-2.8617339208722115e-02</threshold>
            <left_val>4.5078179240226746e-01</left_val>
            <right_val>-1.7334710061550140e-01</right_val></_></_>
        <_>
          <!-- tree 15 -->
          <_>
            <!-- root node -->
            <feature>
              <rects>
                <_>
                  7 3 8 2 -1.</_>
                <_>
                  7 4 8 1 2.</_></rects>
              <tilted>0</tilted></feature>
            <threshold>-4.8876102082431316e-03</threshold>
            <left_val>2.8810310363769531e-01</left_val>
            <right_val>-1.6719259321689606e-01</right_val></_></_>
        <_>
          <!-- tree 16 -->
          <_>
            <!-- root node -->
            <feature>
              <rects>
                <_>
                  0 8 20 12 -1.</_>
                <_>
                  0 12 20 4 3.</_></rects>
              <tilted>0</tilted></feature>
            <threshold>-1.1979209631681442e-01</threshold>
            <left_val>3.7278130650520325e-01</left_val>
            <right_val>-1.8799109756946564e-01</right_val></_></_>
        <_>
          <!-- tree 17 -->
          <_>
            <!-- root node -->
            <feature>
              <rects>
                <_>
                  19 15 1 4 -1.</_>
                <_>
                  19 17 1 2 2.</_></rects>
              <tilted>0</tilted></feature>
            <threshold>-8.0971181159839034e-04</threshold>
            <left_val>-4.5642659068107605e-01</left_val>
            <right_val>1.1428759992122650e-01</right_val></_></_>
        <_>
          <!-- tree 18 -->
          <_>
            <!-- root node -->
            <feature>
              <rects>
                <_>
                  7 4 4 2 -1.</_>
                <_>
                  7 4 2 1 2.</_>
                <_>
                  9 5 2 1 2.</_></rects>
              <tilted>0</tilted></feature>
            <threshold>-2.3545580916106701e-03</threshold>
            <left_val>4.8336499929428101e-01</left_val>
            <right_val>-1.6499349474906921e-01</right_val></_></_>
        <_>
          <!-- tree 19 -->
          <_>
            <!-- root node -->
            <feature>
              <rects>
                <_>
                  19 15 1 4 -1.</_>
                <_>
                  19 17 1 2 2.</_></rects>
              <tilted>0</tilted></feature>
            <threshold>1.7836630577221513e-03</threshold>
            <left_val>7.5880967080593109e-02</left_val>
            <right_val>-5.2245491743087769e-01</right_val></_></_>
        <_>
          <!-- tree 20 -->
          <_>
            <!-- root node -->
            <feature>
              <rects>
                <_>
                  0 15 1 4 -1.</_>
                <_>
                  0 17 1 2 2.</_></rects>
              <tilted>0</tilted></feature>
            <threshold>1.5964589547365904e-03</threshold>
            <left_val>1.1952920258045197e-01</left_val>
            <right_val>-6.1662852764129639e-01</right_val></_></_>
        <_>
          <!-- tree 21 -->
          <_>
            <!-- root node -->
            <feature>
              <rects>
                <_>
                  10 6 10 14 -1.</_>
                <_>
                  10 6 5 14 2.</_></rects>
              <tilted>0</tilted></feature>
            <threshold>-2.5869318842887878e-01</threshold>
            <left_val>-7.4112719297409058e-01</left_val>
            <right_val>5.3653330542147160e-03</right_val></_></_>
        <_>
          <!-- tree 22 -->
          <_>
            <!-- root node -->
            <feature>
              <rects>
                <_>
                  0 7 10 13 -1.</_>
                <_>
                  5 7 5 13 2.</_></rects>
              <tilted>0</tilted></feature>
            <threshold>-1.2092660367488861e-01</threshold>
            <left_val>-5.5085521936416626e-01</left_val>
            <right_val>1.3082459568977356e-01</right_val></_></_>
        <_>
          <!-- tree 23 -->
          <_>
            <!-- root node -->
            <feature>
              <rects>
                <_>
                  19 5 1 3 -1.</_>
                <_>
                  19 6 1 1 3.</_></rects>
              <tilted>0</tilted></feature>
            <threshold>2.2351629741024226e-04</threshold>
            <left_val>1.6436770558357239e-01</left_val>
            <right_val>-5.7896500825881958e-01</right_val></_></_></trees>
      <stage_threshold>-8.2820522785186768e-01</stage_threshold>
      <parent>11</parent>
      <next>-1</next></_>
    <_>
      <!-- stage 13 -->
      <trees>
        <_>
          <!-- tree 0 -->
          <_>
            <!-- root node -->
            <feature>
              <rects>
                <_>
                  2 0 12 1 -1.</_>
                <_>
                  8 0 6 1 2.</_></rects>
              <tilted>0</tilted></feature>
            <threshold>-4.6813820517854765e-05</threshold>
            <left_val>2.3902660608291626e-01</left_val>
            <right_val>-3.6657610535621643e-01</right_val></_></_>
        <_>
          <!-- tree 1 -->
          <_>
            <!-- root node -->
            <feature>
              <rects>
                <_>
                  19 5 1 3 -1.</_>
                <_>
                  19 6 1 1 3.</_></rects>
              <tilted>0</tilted></feature>
            <threshold>-2.1873110381420702e-04</threshold>
            <left_val>-5.1245492696762085e-01</left_val>
            <right_val>1.4639690518379211e-01</right_val></_></_>
        <_>
          <!-- tree 2 -->
          <_>
            <!-- root node -->
            <feature>
              <rects>
                <_>
                  0 5 1 3 -1.</_>
                <_>
                  0 6 1 1 3.</_></rects>
              <tilted>0</tilted></feature>
            <threshold>-6.6270661773160100e-04</threshold>
            <left_val>-6.2052202224731445e-01</left_val>
            <right_val>1.7668679356575012e-01</right_val></_></_>
        <_>
          <!-- tree 3 -->
          <_>
            <!-- root node -->
            <feature>
              <rects>
                <_>
                  9 2 11 9 -1.</_>
                <_>
                  9 5 11 3 3.</_></rects>
              <tilted>0</tilted></feature>
            <threshold>-3.3756088465452194e-02</threshold>
            <left_val>2.0724900066852570e-01</left_val>
            <right_val>-1.6381350159645081e-01</right_val></_></_>
        <_>
          <!-- tree 4 -->
          <_>
            <!-- root node -->
            <feature>
              <rects>
                <_>
                  4 4 10 2 -1.</_>
                <_>
                  4 4 5 1 2.</_>
                <_>
                  9 5 5 1 2.</_></rects>
              <tilted>0</tilted></feature>
            <threshold>5.7722628116607666e-03</threshold>
            <left_val>-1.9042949378490448e-01</left_val>
            <right_val>4.0339830517768860e-01</right_val></_></_>
        <_>
          <!-- tree 5 -->
          <_>
            <!-- root node -->
            <feature>
              <rects>
                <_>
                  18 13 2 2 -1.</_>
                <_>
                  18 13 1 2 2.</_></rects>
              <tilted>0</tilted></feature>
            <threshold>-1.7262999608647078e-04</threshold>
            <left_val>1.8825680017471313e-01</left_val>
            <right_val>-2.5020581483840942e-01</right_val></_></_>
        <_>
          <!-- tree 6 -->
          <_>
            <!-- root node -->
            <feature>
              <rects>
                <_>
                  3 0 12 6 -1.</_>
                <_>
                  7 0 4 6 3.</_></rects>
              <tilted>0</tilted></feature>
            <threshold>4.9261279404163361e-02</threshold>
            <left_val>-2.4327209591865540e-01</left_val>
            <right_val>3.2230231165885925e-01</right_val></_></_>
        <_>
          <!-- tree 7 -->
          <_>
            <!-- root node -->
            <feature>
              <rects>
                <_>
                  18 13 2 2 -1.</_>
                <_>
                  18 13 1 2 2.</_></rects>
              <tilted>0</tilted></feature>
            <threshold>-6.9653107784688473e-03</threshold>
            <left_val>-5.7646292448043823e-01</left_val>
            <right_val>5.7230931706726551e-03</right_val></_></_>
        <_>
          <!-- tree 8 -->
          <_>
            <!-- root node -->
            <feature>
              <rects>
                <_>
                  0 13 2 2 -1.</_>
                <_>
                  1 13 1 2 2.</_></rects>
              <tilted>0</tilted></feature>
            <threshold>-2.3311600671149790e-04</threshold>
            <left_val>2.1547630429267883e-01</left_val>
            <right_val>-3.7117680907249451e-01</right_val></_></_>
        <_>
          <!-- tree 9 -->
          <_>
            <!-- root node -->
            <feature>
              <rects>
                <_>
                  2 10 16 10 -1.</_>
                <_>
                  2 15 16 5 2.</_></rects>
              <tilted>0</tilted></feature>
            <threshold>-2.7691820263862610e-01</threshold>
            <left_val>6.5586447715759277e-01</left_val>
            <right_val>-1.1631149798631668e-01</right_val></_></_>
        <_>
          <!-- tree 10 -->
          <_>
            <!-- root node -->
            <feature>
              <rects>
                <_>
                  1 8 18 12 -1.</_>
                <_>
                  1 8 9 6 2.</_>
                <_>
                  10 14 9 6 2.</_></rects>
              <tilted>0</tilted></feature>
            <threshold>2.2245649993419647e-01</threshold>
            <left_val>-1.1644220352172852e-01</left_val>
            <right_val>7.1338862180709839e-01</right_val></_></_>
        <_>
          <!-- tree 11 -->
          <_>
            <!-- root node -->
            <feature>
              <rects>
                <_>
                  19 3 1 9 -1.</_>
                <_>
                  19 6 1 3 3.</_></rects>
              <tilted>0</tilted></feature>
            <threshold>-2.2712340578436852e-03</threshold>
            <left_val>-5.7365167140960693e-01</left_val>
            <right_val>2.1743820607662201e-01</right_val></_></_>
        <_>
          <!-- tree 12 -->
          <_>
            <!-- root node -->
            <feature>
              <rects>
                <_>
                  3 13 4 1 -1.</_>
                <_>
                  5 13 2 1 2.</_></rects>
              <tilted>0</tilted></feature>
            <threshold>-1.8371320329606533e-03</threshold>
            <left_val>4.1775029897689819e-01</left_val>
            <right_val>-1.9896809756755829e-01</right_val></_></_>
        <_>
          <!-- tree 13 -->
          <_>
            <!-- root node -->
            <feature>
              <rects>
                <_>
                  17 13 2 2 -1.</_>
                <_>
                  18 13 1 1 2.</_>
                <_>
                  17 14 1 1 2.</_></rects>
              <tilted>0</tilted></feature>
            <threshold>-6.4783170819282532e-04</threshold>
            <left_val>2.3336429893970490e-01</left_val>
            <right_val>-4.4974468648433685e-02</right_val></_></_>
        <_>
          <!-- tree 14 -->
          <_>
            <!-- root node -->
            <feature>
              <rects>
                <_>
                  1 13 2 2 -1.</_>
                <_>
                  1 13 1 1 2.</_>
                <_>
                  2 14 1 1 2.</_></rects>
              <tilted>0</tilted></feature>
            <threshold>4.7281489969464019e-05</threshold>
            <left_val>-2.4493169784545898e-01</left_val>
            <right_val>2.9523870348930359e-01</right_val></_></_>
        <_>
          <!-- tree 15 -->
          <_>
            <!-- root node -->
            <feature>
              <rects>
                <_>
                  5 0 10 3 -1.</_>
                <_>
                  5 1 10 1 3.</_></rects>
              <tilted>0</tilted></feature>
            <threshold>9.9427793174982071e-03</threshold>
            <left_val>-1.2488330155611038e-01</left_val>
            <right_val>5.6021428108215332e-01</right_val></_></_>
        <_>
          <!-- tree 16 -->
          <_>
            <!-- root node -->
            <feature>
              <rects>
                <_>
                  0 0 9 3 -1.</_>
                <_>
                  3 0 3 3 3.</_></rects>
              <tilted>0</tilted></feature>
            <threshold>-2.9391679912805557e-02</threshold>
            <left_val>-8.0538028478622437e-01</left_val>
            <right_val>1.0207259654998779e-01</right_val></_></_>
        <_>
          <!-- tree 17 -->
          <_>
            <!-- root node -->
            <feature>
              <rects>
                <_>
                  19 3 1 9 -1.</_>
                <_>
                  19 6 1 3 3.</_></rects>
              <tilted>0</tilted></feature>
            <threshold>2.0755380392074585e-03</threshold>
            <left_val>1.0269299894571304e-01</left_val>
            <right_val>-5.9370499849319458e-01</right_val></_></_>
        <_>
          <!-- tree 18 -->
          <_>
            <!-- root node -->
            <feature>
              <rects>
                <_>
                  0 3 1 9 -1.</_>
                <_>
                  0 6 1 3 3.</_></rects>
              <tilted>0</tilted></feature>
